digraph Tree {
node [shape=box] ;
0 [label="PC2 <= -1.834\nmse = 0.006\nsamples = 8409\nvalue = 0.536"] ;
1 [label="PC1 <= 1.012\nmse = 0.006\nsamples = 3513\nvalue = 0.519"] ;
0 -> 1 [labeldistance=2.5, labelangle=45, headlabel="True"] ;
2 [label="mse = 0.005\nsamples = 2694\nvalue = 0.499"] ;
1 -> 2 ;
3 [label="mse = 0.004\nsamples = 819\nvalue = 0.583"] ;
1 -> 3 ;
4 [label="PC2 <= 0.485\nmse = 0.006\nsamples = 4896\nvalue = 0.548"] ;
0 -> 4 [labeldistance=2.5, labelangle=-45, headlabel="False"] ;
5 [label="mse = 0.004\nsamples = 1363\nvalue = 0.571"] ;
4 -> 5 ;
6 [label="mse = 0.006\nsamples = 3533\nvalue = 0.539"] ;
4 -> 6 ;
}